<?xml version="1.0"?>
<opencv_storage>
<opencv_ml_ann_mlp>
  <format>3</format>
  <layer_sizes>
    32 24 3</layer_sizes>
  <activation_function>SIGMOID_SYM</activation_function>
  <f_param1>0.66666666666666663</f_param1>
  <f_param2>1.7159</f_param2>
  <min_val>-0.94999999999999996</min_val>
  <max_val>0.94999999999999996</max_val>
  <min_val1>-0.97999999999999998</min_val1>
  <max_val1>0.97999999999999998</max_val1>
  <training_params>
    <train_method>RPROP</train_method>
    <dw0>0.10000000000000001</dw0>
    <dw_plus>1.2</dw_plus>
    <dw_minus>0.5</dw_minus>
    <dw_min>1.1920928955078125e-07</dw_min>
    <dw_max>50.</dw_max>
    <term_criteria>
      <epsilon>0.01</epsilon>
      <iterations>1000</iterations></term_criteria></training_params>
  <input_scale>
    25.249562194102314 -0.39269002099034533 8.6300321380673264
    -0.97066944741224515 19.77525475303651 -0.86667392536920207
    26.415308467288614 -1.4798191122166462 23.800174607146833
    -1.4085524409712531 15.980679553512726 -0.95531734871001239
    17.368732963669274 -1.311749353778132 40.835417627681686
    -0.35355339059327379 29.801935748001224 -0.86685212806181811
    23.31457183282879 -0.49503214353980041 41.365745158418939
    -0.35355339059327373 26.551597944010151 -1.2745134088948724 1. 0.
    27.246836108044224 -0.3894362145817446 10.39446958018247
    -0.35355339059327373 27.077726236986084 -0.54419594024990003
    44.997091193425163 -1.514008972464207 16.465845545048083
    -0.74387827869946443 30.2298411859732 -0.59057077657387613
    26.221501362421826 -0.450114120909688 24.736956939499404
    -0.75078153793908631 47.941765854986151 -0.52088498280852369
    27.423138874289908 -1.2479686415466649 25.85646491706742
    -1.275632458669991 24.87440494087636 -0.4196813861850146
    51.103678483586492 -0.76188060872053365 31.861739476987577
    -1.2075090189932194 54.093668559256272 -0.35355339059327379
    18.465763106012091 -0.40743516962328946 95.206811229271494
    -0.46499055257883792 36.195027451836758 -0.35355339059327379
    21.227223370281038 -0.61968696971401471</input_scale>
  <output_scale>
    0.52631578947368418 0.49999999999999994 0.52631578947368418
    0.49999999999999994 0.52631578947368418 0.49999999999999994</output_scale>
  <inv_output_scale>
    1.8999999999999999 -0.94999999999999996 1.8999999999999999
    -0.94999999999999996 1.8999999999999999 -0.94999999999999996</inv_output_scale>
  <weights>
    <_>
      0.20406262758373964 -0.13733964588585351 -0.18272960270025851
      -0.037911405357745197 0.41816293750199257 -0.29907823508828979
      0.0023716668001402125 0.29264499821322171 -0.41336443206724094
      0.049534331142191627 -0.05457034938482707 -0.095538406949860141
      0.36044424358542521 0.04825961210841518 -0.20742926865696173
      0.27227756338606129 -0.043526055327128492 -0.013580744817621244
      -0.13022534770018032 -0.30424276862465449 -0.34897215091097955
      -0.54236058250389996 -0.14121698106367028 -0.12145932296916752
      -0.022618685301122449 0.026878354164951202 0.55353826341261714
      -0.20474669632939096 0.010778117357386123 0.057971665168420283
      0.20866233072359483 -0.0045045525698498307 -0.01093119104578557
      0.47984587956118441 -0.10675135581642067 -0.3018642031646106
      -0.053828533350001699 0.065197357555950269 -0.076029332082263271
      -0.32256672556602184 0.0035527678678465629 -0.30722171395711867
      -0.12407970929961774 0.37999272187236183 0.12714149470113692
      -0.11776579387941863 -0.14608161125521779 -0.36277275014064053
      0.019039874472102161 -0.10050205676533665 -0.12275188921984011
      -0.14199256385587403 0.052187268706660961 0.034337493653415402
      0.17587004805509932 0.019584185901223204 -0.0885072657514719
      0.229189400790071 -0.32819955696437386 0.16390824215231459
      0.049295850364719215 0.023413683794297285 -0.13138475166574234
      0.18694955648532496 0.15451324312846812 0.021413392519917085
      -0.18945925505662503 -0.060111272014922813 -0.018002885350285436
      -0.082330564013701063 0.28624161764317191 0.087388242058605362
      0.028815509396629101 0.053863330443549143 0.22579111086012033
      0.093948617981018334 -0.66457999153112368 -0.53683121145488377
      0.019669146332171417 0.80316818849852201 0.19805732784614094
      -0.096247815744988141 0.16088427179222484 -0.065375853354290817
      -0.36780269512046149 -0.060894582221664384 0.15850131732609501
      -0.0010716119494024955 -0.029455599275978725 -0.012901766190390651
      0.42937691224958591 0.098828012705829874 0.061646887569542085
      -0.13553151510002573 0.01028898359680783 -0.069560706416260346
      -0.7875975681730667 0.17216518520353102 0.10478121395851345
      0.094264306142202464 -0.70253500981490857 0.35135031322373217
      0.1970980828414042 -0.40662232775119861 -0.020107082948898368
      -0.060049997713545709 0.1423503119617622 -0.055043388984704053
      -1.2774487646425543 0.17888702126621628 0.0062626636195620335
      -0.1785204782091947 0.17160161306521246 -0.17426756367305338
      0.039287752621220022 0.14380642156835483 0.68346882329682779
      0.71714164942951064 0.33013875288565397 -0.14050361827206237
      0.068709031543868995 -0.075708357822519237 -0.19582853052748952
      -0.098159885068150363 -0.11777419145980286 -0.10333010332837501
      0.16443227383805725 0.064869195307649646 -0.11061486179006207
      0.082800834511303434 -0.49362994876824717 -0.079160091969857169
      0.37135855017641695 -0.057535061021926764 -0.31782923465875412
      0.58018310313079668 -0.056375823971327663 0.58764188400861983
      -0.58759706388399291 -0.31689762101876695 -0.15600577849605729
      -0.11830583618839111 -0.14032931767834986 0.24609807556977262
      0.2516980734329754 -0.087717561396338475 -0.41481553248145031
      -0.32853209742651612 0.10992910535392775 -0.024747394802083968
      -0.019707240416324136 0.1248510412142728 -0.46682556356602212
      0.29708319743593853 -0.084881140348131767 0.12126476869075904
      0.10841936482861567 0.018068651626677108 -0.20753035562120001
      0.14375302763270148 -0.064751230251385669 -0.0012082224962760317
      -0.18512344375883746 -0.18556429061882659 -0.079832362617520872
      -0.16349349193264404 0.22495406007101565 0.11923497399775336
      0.27912511073566454 -0.033796402106339864 0.10945549794141661
      0.26614037624115872 -0.10334570730106969 -0.30389719137649679
      0.22477882737965582 0.29192722197291099 0.042968271429134688
      -0.48474405965310563 0.31038259721303796 -0.18074477336297445
      0.2201346683414899 -0.15387595002660215 0.40664701237306095
      -0.20232076853011402 0.00096552512762785626 -0.61005189358844336
      0.24004905595428386 0.076681677713861973 -0.1217001313184537
      -0.22185215270952258 0.062423912745082195 -0.029370298493640583
      -0.15974870265363056 -0.21607919851855187 -0.33783661706752149
      -0.016463732759649092 0.11637132640754465 0.17763994332192334
      0.11522046191328802 -0.019347915167180194 -0.27698821527424855
      0.1102306347840796 -0.057413794476260348 0.19007289905240546
      -0.26235983301963339 0.054625174008995858 -0.45191711357111364
      -0.05228034517993857 -0.0011722428637878698 -0.095088963266626858
      -0.0092959974764290441 0.072199479920709589 0.1267688208749162
      0.11619737364419712 0.089279297840061653 -0.075527180241535749
      0.15909612060998901 -0.0791380199979307 -0.24474913120033226
      -0.44716042863742472 0.057338394052281999 -0.14270434804540866
      -0.034998125415882049 -0.023753554078832652 -0.094817414633647693
      -0.062582555637696102 0.0016985675787331775 0.1233229858224406
      0.051505095669828117 0.013943497124413028 -0.14063198249488548
      0.084432617420675329 -0.16691981486276344 0.044297802304559188
      0.039382193487359572 -0.09826341122815048 -0.091122851320567605
      -0.020238644984752523 0.28342292513141903 0.18445748613027971
      0.10245848219114144 -0.028556594542174765 -0.049548198578319151
      -0.040083184650249168 -0.013509773002916763 -0.092684744725149606
      0.002184272399401041 0.013118830836659425 -0.001998298710976433
      -0.041492567842343418 -0.090569025132856029 -0.021814607477598127
      -0.032741010644390049 -0.089329885542495296 -0.36781092509402269
      -8.6386934169630468e-05 -0.093709626137792337 0.12878408197009228
      -0.01963385277836785 0.097817400698989754 -0.022666011412390823
      -0.091078054031783914 -0.04019878579575481 0.022611069191665438
      0.24391498240382031 -0.21849830232764728 0.040324894256945819
      -0.13475425873824406 -0.13121184181424519 -0.19640563199795558
      0.011951699781518709 0.39344989484214493 -0.023092539952950485
      0.17429054963977164 0.061381527778211646 0.056502746449597109
      -0.13518744527614401 -0.056284920041837154 0.11671497966235039
      0.084641374132994246 -0.13564545412831358 -0.0094827105272780061
      0.021742688096736837 -0.038245523741105243 0.12681498878183201
      -0.091293697261527473 -0.052459215535678304 0.010764256498112726
      -0.034620694614298286 0.059118436950465279 0.024645642030366559
      0.048320468541363903 0.043336337975609741 -0.053827791861591603
      -0.042763471827442251 -0.041270386908221775 0.040052944383332421
      0.033930736368041295 0.054988263173734911 -0.017278221612371331
      -0.020238607097489803 -0.058506938118754043 -0.050395207721829823
      -0.03620371561337319 -0.046255028140408966 0.059481463676745866
      0.017157748433675023 0.037081709217522137 -0.0063161581784780749
      -0.0087019668916193602 -0.032932266071889295 0.068310127809879828
      -0.12811129220321657 0.087763587518944808 0.15578810496231293
      -0.10275362928377715 -0.01228790560011345 0.13501475738114388
      0.28319057760085958 -0.13395597995923364 0.1894193637875527
      0.2113325882843648 -0.070881966127876783 -0.34371260861951458
      -0.12262284055622526 0.11438147483125506 0.017951340703811179
      -0.29347956056745061 0.016765528941841794 -0.26143164487081555
      -0.068075185024084939 0.29188466660941881 0.11893043210704847
      0.068420005118853489 -0.37788165436359306 0.015965373014410759
      0.47489285751153959 -0.030426552358454768 0.3135046915564193
      0.073849835436189018 -0.35934424315320451 -0.25759307299940282
      0.11628453992133614 0.095991157919911155 0.034985190945387379
      0.0074895312590768301 0.021690212343369861 -0.17551165231060695
      0.085934121300880517 -0.10404565948867137 0.39522246344709167
      -0.1897462876016725 -0.071012840581550468 -0.16356103887951998
      -0.5372320851379766 0.22561846829553092 0.35185579809874346
      -0.54864316502858945 -0.019587482952796248 -0.18505258189424173
      0.18931069377092608 0.047712827534318873 0.09643766572467137
      0.25531199189763382 -0.0024031427136631338 -0.25249466543282956
      0.049637744293207484 0.29171451662617109 0.12132581070045617
      -0.12899776954529754 0.17182330192369138 -0.095655032429388137
      0.35186136778217858 -0.20191290272195994 0.40018762048855566
      -0.033166287212611792 -0.027628502984364402 -0.062820275291322558
      0.17018559762156538 -0.062664332666735018 -0.18968180856876588
      -0.17796152405536025 0.069508472119107295 -0.014390070698728746
      0.17804518702350827 -0.055576601773934434 -0.24357935239385917
      0.074103732019001098 0.2568824963783391 -0.216349514213623
      0.04081802633341048 0.16255940940638516 -0.18351701976400658
      -0.045560461723100423 0.034754751812446853 0.091566904472512159
      0.38069524842203789 -0.081414222749523465 -0.046030588285623675
      0.1550720131488455 0.24879049546609983 -0.0044861917505597555
      -0.055156398842219546 0.30766108678991338 -0.28660362558703678
      -0.10975000061480394 0.16748522092428575 0.11666714426710392
      -0.019229759659998704 0.096754879365847021 0.043996124291011386
      -0.24612448655382368 -0.033252269978085648 0.059058789272539235
      0.051784289658405314 0.019230885978292624 0.031426788736205205
      0.25017955716819601 0.05344839595592718 -0.14611823381870787
      -0.1984456058757969 0.27315326417888403 -0.0067318399578720853
      -0.14573966373334238 0.013674420142191524 -0.38061043978696218
      -0.24317286684396608 0.17248943972941444 0.24407417125396302
      0.057380279607493395 -0.23717092303461254 -0.11228456670881534
      -0.043315524878425431 0.071130183031407973 0.12547806288670416
      0.32003956510514564 0.16916032014746687 -0.05172826102776041
      -0.017561364463819527 0.038178252205713199 -0.018480003754198331
      -0.3065368328694541 0.4108264899819124 -0.22384240539132952
      0.078361012689588852 -0.0058386510046522198 0.10066510866365115
      -0.20943836120336792 0.00061001174707598022 0.055968418365352254
      0.20769174829397974 0.10866388656889921 -0.07780235395505132
      0.084451963427698881 -0.038996153327751679 -0.15785804013686752
      -0.083016102328925756 -0.073055661067702518 -0.10116240061133025
      -0.40245767191140669 0.07238647981712297 0.046737410844257858
      0.30172671648883886 -0.066729851224460277 -0.012831771397834993
      0.38724868103664722 -0.24247283672571204 0.07411207164083275
      -0.004166351406843489 0.39433497580295451 -0.18053562959066494
      -0.045660819481323493 -0.084821863382128854 -0.0034456189026141979
      0.076668265315042353 0.14207488520339009 -0.049810606550834968
      -0.074506474222614388 -0.20969388739159719 0.028441300955961604
      0.0086361600482941434 0.061625825311568794 0.10906555224279971
      0.32575368273905092 -0.058030005508823389 0.06573456593199932
      0.071801199099678692 -0.072771090682138703 -0.015972827169968458
      -0.3017142138228846 0.28898037360077933 -0.36707909328217558
      -0.0075477237432072892 0.037652328536965957 0.15000854359984556
      -0.12178586417787497 -0.013200029716038243 -0.26288374187578412
      -0.0052741462598976246 0.25700534668900421 0.030605480362148559
      -0.059883166287822587 -0.28479459465415458 -0.09646038158591598
      -0.073053851939719611 0.099013008135134847 0.15011726080820958
      0.24867272849039646 -0.00015238493559309452 0.15282940967357178
      0.038438111533646603 -0.36014773863086713 0.45606237632872587
      -0.19455159567020797 0.26232309072704024 0.07159639239839613
      -0.28006372680907193 -0.13957807503070713 0.15538102115950803
      0.098063555637821903 -0.026383159421140334 0.13712705182232687
      0.17705488533903646 -0.16811127382023883 0.17750518567262022
      0.083043357453276956 0.095233846248815285 0.18852775744497186
      -0.027564851724898087 -0.15600000040090145 0.010624378187580188
      0.10370392801170208 0.24754269933559303 0.12129140970747601
      -0.09440517094214701 0.037737346879895592 -0.0075042756042189565
      0.014817901902481364 0.15114022982996966 -0.093742708718622517
      0.11012002665973686 0.01220869156225558 0.088594539739678305
      0.0071461936373183339 -0.10169202402341473 -0.082575315573365254
      0.03601057398222593 0.064138331537365201 -0.065927058707947322
      0.053334622925948504 -0.27450070741808769 -0.28048901829303741
      0.23986559192827056 0.22847517418986124 -0.24009719629155285
      0.15029176158445889 0.26621473766526826 -0.32452213612198821
      -0.089995455192597329 0.30427329708284961 -0.18440640724882257
      -0.97006131927492478 -0.17713440684654871 -0.13415302040672333
      0.68973973149517143 -0.080926483437400998 -0.15629279779542796
      -0.18303873722122754 0.043791419693706236 0.038299246738110131
      2.6182615984428841 0.22118395006880531 -0.69072767756883557
      0.22226504531145783 -0.68366816164670507 -0.2038261562145168
      0.15686813333808786 -0.28560236832813335 -0.24688183015850101
      -0.62570109390404771 0.029731843109158957 0.033440916917210989
      0.090212385868896225 0.013655183179149896 0.0072785630548669062
      0.36022280566037607 -0.17244765902454828 -0.13436353863093231
      0.026169806925361354 0.70675414054057406 -0.044911844018173573
      0.14826311932468633 -0.14844633737640051 -0.30418737718082028
      0.026331862568781443 -0.10295649594923519 -0.038657684556635492
      -0.17269591236872991 -0.057739861363741603 -0.13812200855608525
      -0.21297626391439189 0.20563820986833586 0.088254020910639427
      0.16549756566523283 0.27955788761801492 0.14277406093298098
      0.20822466872501996 -0.13199898434652155 -0.021203363619155088
      -0.40250377058178666 0.39121106789629745 -0.20265201561339233
      -0.14239311882103159 -0.053592445110840652 0.20811772874945317
      -0.26197348429777173 0.16225224991651174 -0.029169939090755017
      0.8953902915370695 0.3104084241073633 0.10859987622102076
      0.037530091328345526 -0.0068463281225415434 0.13305395813843132
      0.15305277304322079 -0.088087293321542401 -0.10999614868677371
      -0.027434414808222909 0.12406591217762748 -0.18652791835289417
      0.022828167891783192 0.1115636724826289 -0.044208998928136352
      -0.070679263178909449 -0.18813241270015016 0.095766640657346996
      0.1986460130406992 -0.047454762063382734 -0.20865160029208094
      0.12456969338787084 -0.15019307964117404 0.091713265500274574
      -3.298646275260754e-05 -0.11007863532290653 -0.082601338763688192
      -0.088387150799490222 0.3296922427161067 0.10378892463551895
      -0.14526846303539956 0.13346636873198769 0.21207511148930058
      -0.1435578521858282 0.0021485764799983832 0.098895339318996606
      0.3098662759974577 -0.17545419765679787 0.2455827917292801
      0.090848644102773726 -0.12206392472285243 -0.29078759558700717
      -0.090073826569460849 0.37410701165071558 -0.073040733579263356
      -0.30319537429023208 0.051464551234774621 -0.20566475818985497
      -0.11726515418991651 0.38571041254557781 0.052347343179495666
      0.076105669248127394 -0.45151690310616061 0.00096718636443879564
      0.28973344235977078 -0.13405582921001599 -0.2822234325014179
      -0.068033879875615627 0.28058560319293246 -0.33980882845639504
      0.18222998250483952 0.40212855709417972 -0.27706062577149065
      -0.021882079709469426 -0.22005448466103034 -0.081495167784100417
      0.23696932134705351 0.031043908473040161 -0.14696660221989308
      0.29501008320654387 -0.051585821547492618 -0.065453818246281062
      -0.88470340023444638 0.097849953398346887 -0.28137401131560608
      -0.75864816249756739 -0.016672730694681039 -0.059065371801884307
      -0.059602947820325575 0.013951451506776192 -0.047940454138535378
      -0.090322280826715534 0.53743496518988754 0.094811432797110518
      -0.0024689154669211935 0.036217126973912189 0.0082518429634727553
      0.05638389103044622 0.059106544478072655 -0.31723322257202047
      0.23101866622493508 0.012407363179994864 -0.0085945738647795963
      0.011513804311564638 0.084514978657086556 -0.20661560737389936
      0.014052575515332559 0.041063651181142621 -0.23537072222908625
      -0.072044359857927759 -0.44407347059196212 -0.13029502065428517
      0.021847083906765034 -0.056541620431146633 -0.10183205292438294
      -0.069292636122091383 -0.055564649386568292 -0.10817008344567525
      0.013320593053100988 0.10033031265286178 -0.051455925233915262
      -0.073307086273073668 -0.05892232412962313 -0.047625715696500745
      0.033293924513261554 -0.13661383582405318 -0.41061699003531443
      -0.053181136254910687 -0.12507748065866348 0.075865253785867143
      -0.087305071356938754 0.078254536428307236 0.022662120015514473
      -0.12026379493582476 -0.094138433611132541 -0.019428568338359112
      0.15017922888698151 0.19973420754809681 0.12453129410622756
      -0.05400307416462604 -0.2347430666280198 -0.12597437178603285
      0.048899961660507252 0.1182120081303169 0.1384770463851098
      0.005613869204899302 0.21513351743935857 -0.075053374340191326
      -0.030393010803030834 0.24420112031509614 0.038741810342156353
      -0.12544630748354477 0.082510731095914502 -0.24744594927085922
      0.10955537241762055 0.069128785970998016 0.074811047779744386
      -0.14446909116823656 0.13533600121242342 0.1301655461259506
      -0.36047823234604814 0.25068492544160836 -0.42243258476851198
      -0.4864119087122718 0.12705739851054859 0.31326586740552231
      -0.2824006533582184 0.21122019499937233 -0.16537506812489888
      0.4972331973505269 -0.34159489479453264 0.41510356417857919
      -0.18846399999999996 0.11668762972693322 -0.4732280514097047
      0.19431905957736423 -0.10935832168383926 -0.31573466844993725
      -0.24359046304526688 -0.53901546981295256 0.17273548255848836
      0.3371526445560073 0.43809178963461026 0.37763797732396387</_>
    <_>
      0.36901889122888953 0.64061480896395551 -0.069916224541010097
      -0.42344059518313604 -0.088074418487983253 -0.13659764608588196
      0.41399642244288043 -0.69950847655612569 0.60589685048534314
      0.65430570029495949 -0.89312838362168168 -0.34287008630852722
      0.21068776440879691 0.11705134303136956 -0.21836099573581252
      -0.54373585530987989 -0.82963791571441292 0.2558626270771952
      0.15805887307504793 0.23446977148583387 0.086198954180902523
      0.31513421167989686 0.37042705124353337 0.0050629811824936446
      -0.0073786274990127057 -0.66936900464365801 0.14846210916954744
      -0.30049339435712363 0.5734151194046222 0.58896345544588069
      0.54079954636406025 -0.46808231978200349 -0.066780025789583808
      -0.21211297377857538 -0.5455383473360409 0.14955740093978506
      0.46372414891598801 0.47187002986301924 -0.67615895578572605
      -0.084669213674792632 0.10725547397944031 0.18330879406594341
      0.6096097952559939 0.064039664566527724 0.45480882518539689
      -0.26261206985084079 -0.71650312422874762 0.036901012154316071
      -0.15561384689679922 -0.35351299571831385 -0.39621918518199672
      -0.062642306747980492 -0.66787762496739811 -0.098199888938990482
      0.12670578364766294 -0.11100779603196831 -0.39841134339382378
      0.44479650209709942 0.71693106795957329 -0.12903458722297989
      -0.46939920687538328 -0.44048019896152751 0.77481023018092887
      -0.19405723312373349 0.1373861880899282 -0.388333501678782
      -0.053500081617286276 -0.30713690208424882 0.55970038584694237
      -0.42562663800339895 -0.76594137946880791 0.043371620572142694
      0.14205169225516678 -0.65468512847150628 -0.99661561500651374</_></weights></opencv_ml_ann_mlp>
</opencv_storage>
